/*!
 * The following copyright notice may not be removed under any circumstances.
 * 
 * Copyright:
 * ©1995 Aaron Smith  CoinToss Productions
 */
Cufon.registerFont({"w":564,"face":{"font-family":"Arnold 2.1","font-weight":400,"font-stretch":"normal","units-per-em":"1000","panose-1":"0 0 4 0 0 0 0 0 0 0","ascent":"800","descent":"-200","x-height":"37","cap-height":"5","bbox":"-68.2274 -964.719 884 151.84","underline-thickness":"20","underline-position":"-123","unicode-range":"U+0020-U+00FF"},"glyphs":{" ":{"w":341},"!":{"d":"234,-635v-27,149,-51,294,-74,433v-26,21,-61,31,-104,28v-10,-6,-14,-21,-19,-33v1,-234,13,-258,42,-488v31,-6,78,-17,109,-17v56,-1,65,35,46,77xm89,-133v57,0,86,80,56,125v-33,50,-144,31,-144,-37v0,-20,7,-37,21,-51v15,-25,37,-37,67,-37","w":292},"\"":{"d":"225,-712v6,27,-1,47,-12,97v-10,46,-20,70,-27,73v-15,7,-47,4,-54,-7v-3,-3,-4,-19,-4,-46v0,117,-1,97,-2,-61v-1,-46,14,-64,58,-65v19,0,33,3,41,9xm72,-721v30,1,24,9,24,44v0,82,-5,127,-15,136v-22,8,-57,-2,-63,-16v-6,-15,-23,-117,-17,-142v3,-13,52,-22,71,-22","w":299},"#":{"d":"293,-694v11,0,50,6,57,7v-3,60,-6,124,-10,192r76,-9v5,-58,12,-116,19,-173v7,0,66,-19,79,-19v23,0,35,19,35,56v0,13,-3,54,-10,123v69,-6,111,-9,124,-9v59,1,64,27,48,73v-7,21,-11,34,-12,40v-57,7,-115,14,-173,20r-9,76v68,-5,132,-8,193,-11v4,43,15,79,-17,106r-191,25v-9,64,-18,128,-29,191v-20,14,-20,32,-61,28v-4,-3,-10,-14,-19,-33v0,-58,1,-116,3,-173v-29,3,-56,5,-81,8r-16,176v-46,20,-41,21,-89,5v-7,-3,-12,-7,-15,-13v-4,-49,-5,-103,-4,-161v-58,2,-112,2,-161,-4v-8,-1,-24,-39,-23,-58v0,-8,5,-23,16,-45v59,-6,117,-12,176,-17v2,-25,5,-52,8,-80v-57,1,-115,2,-174,2v-8,-2,-19,-8,-32,-18v-5,-40,13,-43,28,-62v63,-10,126,-19,190,-28r26,-192v15,-15,31,-23,48,-23xm406,-384v-25,2,-49,4,-74,5r-6,75r75,-5v1,-25,3,-50,5,-75","w":769},"$":{"d":"272,-728v45,-17,87,-36,137,-36v15,0,25,4,32,13v1,25,-4,64,-16,115v-25,19,-159,70,-187,98v-26,26,-45,55,-51,92v2,33,15,59,40,80v5,3,31,18,79,45v79,43,114,115,92,213v-11,48,-48,85,-109,113r-12,131v-45,18,-61,22,-111,5v-7,-2,-12,-6,-15,-13v-2,-27,-3,-55,-4,-84v-37,5,-83,2,-94,-19v-1,-32,3,-63,10,-93v50,1,84,-1,101,-4v37,-7,64,-25,80,-53v7,-58,15,-57,-4,-90v-16,-28,-49,-51,-90,-74v-53,-29,-86,-48,-99,-59v-32,-27,-49,-61,-52,-102v13,-77,55,-143,127,-199v-3,-37,1,-95,12,-174v50,-11,101,-8,127,21","w":479},"&":{"d":"380,-530v-24,0,-49,-6,-80,0v-52,9,-88,28,-107,56v-13,20,-16,35,-1,48v28,23,52,28,100,18v21,-4,31,-5,32,-4v20,13,19,89,-3,99v-109,19,-170,50,-183,93v-6,18,0,45,14,48v70,13,100,-4,166,-31v9,-4,14,12,14,48v0,28,-4,45,-13,52v-34,15,-65,25,-92,31r-14,86v-36,12,-52,13,-89,-3v-5,-2,-9,-5,-11,-10v-1,-21,0,-44,1,-67v-35,-6,-65,-20,-90,-42v-16,-14,-24,-34,-24,-61v0,-55,27,-97,80,-125v11,-6,41,-20,90,-43v-62,-14,-92,-24,-112,-67v-2,-9,-3,-17,-3,-26v0,-68,48,-121,143,-160r18,-88v11,-11,25,-16,42,-16v-7,0,13,3,62,9r-9,72v43,0,61,-4,82,25v11,15,17,26,17,37v0,14,-10,21,-30,21","w":468},"'":{"d":"148,-703v-4,67,-36,127,-72,122v-8,-8,12,-42,9,-52v0,-9,-5,-12,-14,-9v-39,1,-71,-34,-71,-73v0,-38,28,-70,66,-69v44,1,85,31,82,81","w":225},"(":{"d":"224,-738v-40,94,-65,157,-76,190v-72,215,-67,419,44,586v7,10,-2,15,-21,15v-22,0,-37,-5,-46,-15v-136,-155,-162,-353,-78,-561v31,-75,72,-143,124,-204v11,-13,26,-20,45,-20v8,0,11,3,8,9","w":259},")":{"d":"103,-717v136,155,162,353,78,561v-31,75,-72,143,-124,204v-11,13,-26,20,-45,20v-8,0,-11,-3,-8,-9v40,-94,65,-157,76,-190v72,-215,67,-419,-44,-586v-7,-10,2,-15,21,-15v22,0,37,5,46,15","w":301},"*":{"d":"285,-670v26,-32,80,-21,127,-17v-3,69,-7,144,-12,224r189,-124v18,28,54,55,38,100r-178,137r164,82v57,31,76,50,31,92r-39,36v-74,-34,-148,-70,-221,-108r-23,248v-45,18,-61,22,-111,5v-7,-2,-12,-6,-15,-12v-5,-60,-5,-126,-2,-191v-55,34,-106,62,-155,85v-12,1,-54,-33,-54,-51v-1,-3,-3,-15,-4,-35r198,-140v-67,-37,-134,-77,-200,-118v-6,-6,-12,-17,-18,-34v15,-32,28,-26,56,-37r199,87","w":718},"+":{"d":"266,-603v26,-32,80,-21,127,-17v-3,79,-7,147,-11,206v6,0,50,-3,133,-5v76,-2,92,20,68,74r-14,41v-78,6,-143,10,-196,12v-4,55,-11,128,-20,219v-44,18,-65,23,-111,4v-7,-2,-12,-6,-15,-12v-5,-72,-6,-140,-3,-210v-48,-1,-112,-4,-193,-8v-9,-3,-19,-10,-32,-21v-3,-41,16,-40,31,-59r206,-23","w":640},",":{"d":"73,-147v63,0,85,69,61,125v-8,19,-64,90,-89,82v-6,-8,23,-44,20,-53v2,-7,-38,-21,-37,-23v-53,-38,-22,-131,45,-131","w":222},"-":{"d":"594,-384v0,16,-23,71,-24,80v-229,17,-302,16,-539,5v-8,-3,-18,-10,-31,-21v-3,-41,16,-40,31,-59r243,-26v69,-6,149,-11,242,-14v52,-2,78,10,78,35","w":672},".":{"d":"87,-146v56,0,86,81,56,126v-18,27,-55,36,-92,24v-27,-8,-43,-25,-51,-44v-4,-29,3,-51,20,-68v15,-25,37,-38,67,-38","w":232},"\/":{"d":"542,-673v-110,195,-258,438,-445,728v-39,-1,-73,-17,-101,-46v-5,-5,-7,-11,-7,-18v35,-85,99,-209,203,-364r229,-343v9,-3,17,-4,25,-4v19,0,51,16,96,47","w":566},"0":{"d":"307,-711v130,3,215,95,215,225v0,180,-163,375,-341,369v-117,-4,-174,-55,-180,-184v-9,-181,89,-337,221,-392v27,-12,55,-18,85,-18xm111,-319v-1,54,33,108,89,89v96,-32,174,-130,174,-251v0,-75,-27,-115,-81,-119v-37,-3,-79,34,-128,110v-36,57,-54,114,-54,171","w":589},"1":{"d":"99,-492v-14,-2,-65,28,-80,18v-27,-101,-39,-91,37,-150r70,-53v9,-3,22,-4,39,-4v75,0,113,21,116,64v-24,118,-55,500,-75,609v-25,21,-60,31,-104,28v-5,-4,-11,-15,-18,-32v3,-127,5,-207,6,-238v3,-89,8,-168,15,-237v0,-3,-2,-5,-6,-5","w":348},"2":{"d":"85,-474v-18,5,-90,-76,-85,-93v0,-2,1,-4,3,-6v75,-53,155,-78,265,-80v154,-2,220,79,179,201v-35,104,-111,187,-220,254v25,27,270,89,325,90v10,30,-75,148,-96,153v-126,-28,-260,-88,-401,-181v-10,-20,-4,-56,1,-90v5,-33,10,-51,17,-54v54,-14,103,-37,146,-70v54,-40,80,-82,80,-125v0,-30,-51,-48,-87,-47v-21,0,-47,10,-77,29v-20,13,-37,19,-50,19","w":603},"3":{"d":"270,-343v81,6,120,16,150,62v6,18,9,36,9,53v0,67,-43,130,-129,187v-61,41,-133,61,-216,67v-26,2,-72,-45,-72,-70v0,-19,19,-28,57,-27v19,1,44,-4,75,-14v63,-20,104,-49,122,-86v12,-27,13,-47,-7,-59v-41,-25,-63,-24,-121,-7r-44,12v-26,-11,-37,-96,-13,-122v66,-19,159,-113,170,-186v3,-21,-5,-52,-23,-55v-77,-13,-144,38,-201,66v-8,4,-14,-7,-20,-34v-7,-33,-12,-70,2,-89v89,-54,167,-81,235,-81v47,0,89,12,127,37v27,18,41,49,41,93v0,77,-47,162,-142,253","w":494},"4":{"d":"478,-305v9,39,-3,68,-16,125v-15,1,-33,2,-53,3v-4,55,-11,133,-20,235v-43,19,-63,22,-111,5v-6,-2,-11,-6,-14,-12v-2,-67,-1,-142,4,-224v-168,4,-256,0,-263,-13v-3,-5,-5,-17,-5,-36v0,-66,20,-196,38,-247v33,-15,79,-6,126,3r-7,144v5,8,46,12,121,13v7,-82,19,-188,36,-319v23,-28,89,-27,123,-9v-4,108,-10,218,-18,330","w":549},"5":{"d":"373,-322v0,-35,-36,-50,-65,-51v-30,0,-67,15,-110,45r-72,57v-10,-5,-51,-34,-123,-89v-3,-4,-4,-14,-4,-31v-2,-35,26,-263,42,-271v154,-40,361,-82,514,-91v9,0,14,1,17,2v13,37,18,86,17,149v-73,14,-166,26,-281,35v-95,7,-145,12,-148,15v-10,43,-15,77,-15,103v0,16,2,27,6,33r77,-53v95,-56,188,-59,266,11v23,21,35,50,35,85v0,39,-14,84,-42,135v-46,83,-105,140,-177,170v-56,24,-140,32,-223,26v-16,-36,-15,-77,4,-110v67,2,132,-18,195,-60v58,-39,87,-75,87,-110","w":644},"6":{"d":"129,-263v48,-59,147,-108,249,-109v102,0,153,46,153,137v0,124,-124,262,-224,292v-102,31,-228,-29,-262,-96v-73,-146,-53,-294,28,-437v41,-74,97,-143,167,-207v37,6,72,25,105,56v-90,74,-201,232,-216,364xm154,-76v0,40,28,49,78,49v49,0,93,-25,132,-74v21,-27,32,-51,32,-70v0,-23,-18,-34,-54,-34v-42,0,-80,12,-114,36v-49,35,-74,66,-74,93","w":582},"7":{"d":"470,-366v1,44,-3,73,-12,86v-8,1,-31,5,-69,10r-71,299v-30,7,-65,6,-86,-11v-10,-6,-17,-11,-22,-13v8,-36,21,-125,39,-268v-75,0,-116,0,-123,-1v-15,-37,-4,-56,7,-116v24,-10,87,-10,131,-8v10,-86,15,-133,15,-141r0,-9v-67,-22,-161,-26,-275,-33v-11,-55,1,-61,10,-125v4,-5,14,-7,31,-6v142,5,269,31,380,80v6,87,-1,154,-16,248v23,3,43,5,61,8","w":536},"8":{"d":"393,-344v109,-2,167,28,170,114v4,110,-143,216,-246,241v-36,9,-73,15,-111,15v-130,-2,-206,-47,-206,-155v0,-65,46,-117,138,-158v-67,-16,-126,-71,-126,-147v0,-103,95,-196,175,-238v66,-35,131,-53,196,-53v91,0,166,39,166,128v0,98,-87,205,-156,253xm125,-432v-1,41,39,71,82,70v53,0,102,-32,147,-95v23,-32,34,-60,34,-84v0,-35,-18,-52,-53,-52v-85,2,-206,66,-210,161xm340,-248v-23,0,-52,5,-86,15v-85,25,-127,58,-127,100v0,38,29,57,88,57v61,0,114,-21,158,-62v24,-22,36,-43,36,-62v0,-32,-23,-48,-69,-48","w":628},"9":{"d":"151,-309v-93,0,-153,-49,-153,-136v0,-122,125,-263,225,-293v102,-31,229,30,262,97v72,145,52,296,-28,437v-41,74,-97,143,-168,207v-31,-5,-86,-36,-104,-56v91,-75,201,-233,216,-364v-49,61,-147,107,-250,108xm188,-475v77,0,189,-80,188,-129v0,-33,-26,-49,-78,-49v-51,0,-95,25,-132,74v-21,27,-32,50,-32,69v0,23,18,35,54,35","w":597},":":{"d":"96,-533v57,0,86,81,56,126v-18,26,-55,34,-92,24v-27,-7,-43,-25,-51,-45v-4,-29,4,-50,21,-68v15,-25,37,-37,66,-37xm0,-158v0,-40,40,-83,80,-83v27,0,45,10,54,29v2,12,3,24,3,35v0,62,-28,90,-85,84v-35,-11,-52,-33,-52,-65","w":232},";":{"d":"96,-533v58,0,83,78,49,123v-21,27,-48,38,-85,27v-27,-8,-43,-25,-51,-45v-4,-29,4,-50,21,-68v15,-25,37,-37,66,-37xm73,-243v63,0,85,69,61,125v-8,19,-64,90,-89,82v-6,-8,23,-44,20,-53v2,-5,-38,-22,-37,-23v-53,-38,-22,-131,45,-131","w":230},"=":{"d":"448,-395v-178,25,-248,18,-414,17v-8,-2,-19,-8,-32,-19v-5,-39,14,-42,28,-61v137,-22,206,-42,380,-50v60,-3,65,29,48,74v-7,18,-9,31,-10,39xm458,-310v5,42,16,80,-16,106v-3,-2,-207,32,-269,32v-35,0,-82,-3,-142,-8v-7,-2,-23,-40,-23,-58v0,-8,5,-23,16,-45v100,-10,172,-16,215,-18","w":526},"?":{"d":"432,-460v-15,88,-49,109,-130,149v-42,21,-72,40,-91,59v-7,7,-10,23,-13,45v-3,21,-39,41,-63,41v-15,0,-36,-5,-63,-15v-14,-5,-20,-22,-19,-49v1,-31,18,-58,48,-84v14,-12,42,-30,84,-54v42,-24,65,-53,69,-86v-6,-51,-34,-94,-91,-113r-149,-49v-9,-51,-13,-88,-11,-113v8,-10,25,-14,51,-12v182,11,361,116,378,281xm143,-143v57,0,78,81,48,124v-32,45,-129,41,-142,-15v-6,-27,4,-50,23,-69v17,-27,40,-40,71,-40","w":470},"A":{"d":"510,-11v-23,15,-55,21,-97,20v-17,-22,-40,-79,-61,-142v-73,8,-139,21,-194,40r-2,6v-5,23,-10,55,-26,92v-18,40,-79,23,-132,18v11,-95,36,-212,77,-350v17,-57,55,-175,112,-353v3,-8,76,-14,88,-11v12,17,33,48,55,97v73,159,131,355,180,583xm314,-246v-10,-36,-54,-169,-81,-236r-17,69v-8,31,-28,120,-41,199v51,0,51,-7,139,-32","w":566},"B":{"d":"417,-367v56,14,94,48,94,113v0,35,-8,66,-25,92v-41,65,-99,110,-171,137v-28,11,-141,56,-262,56v-14,0,-23,-11,-26,-32v-28,-172,-36,-428,-20,-626r4,0v57,-29,97,-47,119,-56v106,-41,199,-53,281,6v24,17,30,76,17,115v-15,44,-57,103,-129,176v39,7,80,9,118,19xm119,-392v73,-27,141,-102,146,-190v2,-32,-12,-33,-35,-33v-38,0,-73,17,-104,50v-5,29,-7,87,-7,173xm339,-244v0,-33,-32,-41,-65,-41v-47,0,-98,16,-155,49v-1,47,2,92,11,135v78,-9,137,-32,176,-68v22,-20,33,-45,33,-75","w":574},"C":{"d":"243,-124v85,0,162,-66,205,-125v27,36,48,77,61,123v-45,85,-163,141,-282,139v-42,0,-82,-14,-121,-42v-71,-51,-106,-132,-106,-243v0,-164,66,-292,199,-383v101,-69,194,-80,290,-8v-3,46,-20,97,-42,151v-49,-58,-122,-65,-187,-23v-80,51,-131,164,-133,291v-2,72,43,120,116,120","w":556},"D":{"d":"628,-449v0,104,-58,202,-173,293v-129,103,-277,162,-444,178v-9,-60,-11,-144,-5,-251v5,-95,21,-228,48,-400v148,-124,465,-53,548,73v18,27,26,62,26,107xm383,-424v0,-82,-49,-143,-128,-134r-97,11r-1,8v-9,71,-16,137,-20,199v-3,45,-7,112,-14,202r-2,18v120,-41,262,-166,262,-304","w":682},"E":{"d":"38,5v-20,-3,-39,-24,-39,-47v7,-255,32,-425,103,-609v95,-21,213,-33,354,-36v7,42,-19,108,-41,130v-79,5,-149,10,-211,17r-9,1v3,15,-35,107,-15,133v69,-2,162,-14,220,0v6,33,3,61,-5,97v-57,13,-165,21,-235,32v-11,33,-11,83,-5,136v34,10,193,-30,260,-9v-1,13,-2,36,-6,69v-3,29,-15,46,-33,49v-95,19,-228,26,-338,37","w":492},"F":{"d":"445,-712v0,59,7,83,-9,126v-88,6,-231,9,-280,32v-13,52,-17,122,-17,205r213,-10v9,9,13,24,12,45v0,3,-2,24,-6,61v-47,16,-164,21,-208,45r-10,198v-15,13,-74,40,-112,25r-18,-210v-15,-170,-17,-305,12,-442v119,-49,250,-76,393,-81v17,-1,27,1,30,6","w":478},"G":{"d":"335,-180v-46,-3,-52,-16,-52,-67v0,-37,8,-62,26,-66v66,-16,170,-16,251,-21v43,86,45,244,-26,299v-60,46,-130,73,-214,73v-115,0,-203,-51,-263,-153v-35,-60,-54,-128,-57,-203v-5,-135,57,-246,188,-335v120,-81,238,-99,367,-32v2,3,2,9,0,16v-13,48,-33,88,-58,119v-26,-21,-119,-23,-152,-9v-101,44,-179,169,-180,309v0,80,30,160,98,168v86,10,166,-35,171,-111v-4,1,-82,14,-99,13","w":646},"H":{"d":"415,-691v40,0,84,12,103,25v-15,183,-47,409,-96,680v-30,15,-50,8,-99,2v-14,-76,-7,-187,-7,-278v-55,-6,-110,-3,-153,11r-34,230v-27,11,-54,16,-81,16v-19,0,-42,-2,-46,-17r25,-340v13,-127,33,-239,62,-335v29,-15,76,-19,120,-14v-1,71,-20,225,-26,305v41,10,92,11,143,4v13,-115,28,-216,45,-275v3,-10,19,-14,44,-14","w":575},"I":{"d":"181,-687v-9,203,-26,432,-51,687v-45,18,-61,22,-111,5v-7,-2,-12,-6,-15,-12v-13,-253,15,-389,50,-664v27,-32,79,-23,127,-16","w":250},"J":{"d":"-2,-201v16,-15,62,-53,90,-43v25,38,96,123,139,123v31,0,53,-34,58,-103v9,-132,6,-207,-6,-437v-1,-24,80,-46,108,-46v36,0,54,13,55,40v5,288,-16,484,-57,588v-20,51,-86,107,-150,107v-72,0,-141,-54,-208,-163v-13,-22,-23,-44,-29,-66","w":520},"K":{"d":"446,-93v6,12,-85,124,-97,114v-2,0,-14,-6,-32,-23r-169,-169v6,39,10,94,11,165v0,26,-79,25,-116,27v-17,-3,-26,-15,-27,-36v-1,-10,-4,-94,-11,-253v-5,-107,-7,-191,-7,-251v0,-53,4,-101,4,-146v0,-19,119,-34,146,-32v9,7,10,16,9,28v-9,131,-10,207,-9,228v14,-17,75,-82,183,-196v24,-10,37,7,65,33v24,23,35,42,34,55v-11,11,-79,95,-206,251","w":501},"L":{"d":"163,-608r-6,300v0,67,3,123,9,169r93,0v41,0,73,2,96,5v1,25,4,63,7,114v-102,37,-167,38,-333,35v-8,0,-13,-7,-16,-21v-9,-50,-13,-119,-13,-206v0,-49,7,-205,21,-468v1,-11,19,-17,56,-17v54,0,83,9,85,26v2,19,1,40,1,63","w":408},"M":{"d":"698,-25v-8,23,-56,39,-93,38v-21,0,-32,-3,-34,-9v-7,-87,-15,-206,-22,-356v-5,-5,-6,-6,-11,0r-139,276v-11,17,-24,24,-40,24v-25,0,-44,-2,-51,-16r-30,-59v-21,-36,-67,-155,-85,-189r-35,148v-17,69,-32,116,-44,139v-15,29,-37,41,-66,41v-27,0,-43,-6,-49,-21v17,-149,60,-367,131,-654v10,-14,68,-20,92,-10v33,66,76,175,131,327v85,-143,160,-256,227,-339v55,-6,92,-10,108,29v8,80,4,137,11,273v4,81,5,148,5,201v0,57,-2,109,-6,157","w":782},"N":{"d":"560,-684v45,79,22,238,14,343v-5,59,-22,249,-35,306v-16,16,-34,25,-55,27v-26,-28,-137,-140,-333,-335v-5,112,-3,245,-29,331v-63,29,-65,29,-118,-6r0,-421v-1,-83,-2,-152,-5,-206v15,-27,41,-42,79,-45v82,92,198,211,347,357v8,-57,8,-243,16,-308v3,-25,78,-51,119,-43","w":659},"O":{"d":"604,-368v0,92,-24,177,-73,255v-58,93,-139,139,-243,139v-57,0,-107,-14,-151,-41v-91,-57,-137,-150,-137,-280v0,-129,53,-240,125,-307v72,-68,140,-102,203,-102v43,0,85,15,127,46v99,72,149,169,149,290xm290,-119v114,-7,153,-155,155,-267v0,-45,-6,-87,-23,-124v-21,-46,-26,-56,-88,-56v-49,0,-88,21,-117,62v-63,94,-92,178,-59,289v11,36,43,65,93,88v12,5,25,8,39,8","w":673},"P":{"d":"241,-701v97,0,160,74,136,174v-12,48,-43,98,-90,150v-29,31,-73,72,-133,123v1,79,13,169,4,244v-17,25,-54,36,-109,34v-39,-204,-38,-378,-48,-652v68,-26,159,-73,240,-73xm251,-552v-12,-49,-107,-6,-126,13v-5,49,-4,98,5,144v86,-63,131,-116,121,-157","w":434},"Q":{"d":"392,-704v164,0,273,116,273,286v0,138,-75,274,-155,349v25,36,44,70,58,103v-24,60,-54,92,-111,82v-34,-6,-65,-40,-95,-91v-82,30,-168,35,-247,4v-69,-27,-107,-98,-113,-212v-11,-230,114,-427,281,-498v34,-15,70,-23,109,-23xm273,-186v0,-35,47,-60,85,-54v13,9,29,22,47,40v47,-63,71,-133,71,-212v1,-80,-34,-148,-103,-152v-46,-3,-100,44,-163,141v-46,72,-69,144,-69,217v-1,65,29,118,88,118v17,0,40,-8,70,-23v-17,-41,-26,-66,-26,-75","w":733},"R":{"d":"494,-158r-45,115v-3,2,-15,0,-37,-7v-68,-21,-153,-57,-256,-108v-11,61,-16,133,-15,216v-6,1,-47,2,-123,3v-37,-202,-18,-518,37,-674v103,-57,190,-86,263,-86v87,0,161,51,164,130v2,61,-18,123,-64,187v-17,23,-63,76,-140,157v71,28,143,50,216,67xm334,-546v-3,-28,-19,-42,-46,-42v-21,0,-52,10,-95,31v-2,24,-31,197,-26,242v105,-79,161,-156,167,-231","w":557},"S":{"d":"405,-793v6,31,6,79,14,142v-57,22,-111,53,-169,95v-11,7,-35,28,-68,65v-22,25,-29,48,-16,80v16,24,166,79,180,86v76,41,103,92,78,176v-35,115,-137,189,-297,220v0,-7,-50,-56,-49,-75v0,-11,9,-23,28,-36v49,-37,134,-85,151,-140v7,-21,7,-37,0,-49v-9,-17,-29,-32,-61,-47v-6,-3,-31,-12,-77,-30v-112,-43,-146,-93,-101,-194v33,-74,84,-135,153,-183v21,-15,114,-58,234,-110","w":493},"T":{"d":"158,14v-22,-157,22,-383,13,-544v-43,-5,-121,23,-159,7v-7,-59,-11,-93,-8,-141v27,-1,325,-51,400,-51v17,0,33,1,49,2v6,7,9,11,9,12v1,33,-1,78,-4,137v-49,2,-101,10,-154,25v-21,143,-26,380,-34,553v-38,9,-61,14,-69,14v-17,0,-32,-5,-43,-14","w":514},"U":{"d":"488,-677v0,161,-6,276,-17,347v-21,129,-67,229,-135,305v-60,68,-181,65,-238,-4v-64,-77,-98,-183,-98,-320v0,-53,12,-167,36,-342v9,-14,36,-21,83,-21v38,0,59,5,63,16r-22,178v-15,128,-21,261,15,350v10,25,44,39,74,28v47,-35,78,-141,93,-318v3,-35,6,-105,10,-210v6,-14,32,-21,77,-21v33,0,53,4,59,12","w":561},"V":{"d":"518,-671v-38,159,-113,385,-226,679v-23,29,-94,13,-134,22r-19,-12r-141,-693v47,-28,95,-41,155,-30v37,107,57,344,79,481v56,-124,92,-297,129,-452v53,-16,118,-20,157,5","w":568},"W":{"d":"4,-678v-1,-11,73,-18,88,-18v18,0,28,2,29,7v23,139,40,341,91,434v16,-14,30,-59,45,-94r79,-183v5,-19,67,-29,98,-29v25,0,44,4,59,11v49,76,92,194,132,288v1,3,2,4,3,4v31,0,53,-142,66,-427v19,-30,58,-24,110,-29v13,3,19,25,19,65v0,206,-50,440,-117,591v-29,64,-50,96,-63,96v-31,14,-99,-14,-107,-37r-54,-154v-14,-37,-34,-86,-60,-148v-5,1,-10,8,-17,23r-133,303v-23,37,-106,11,-125,-9v-62,-148,-107,-319,-136,-514v-10,-71,-13,-114,-7,-180","w":893},"X":{"d":"0,-649v6,-36,182,-42,200,-16v11,15,40,73,94,168r136,-207v8,-12,27,-18,56,-18v33,0,63,8,89,23v-18,38,-74,137,-168,298v4,11,149,248,160,301v-16,30,-52,52,-108,66v-17,4,-30,2,-38,-5v-23,-52,-61,-130,-115,-234v-34,85,-65,174,-92,267v-32,26,-49,33,-118,33v-48,0,-65,-24,-52,-61v22,-62,65,-168,127,-320v-38,-89,-115,-201,-169,-288v-1,-2,-2,-4,-2,-7","w":627},"Y":{"d":"633,-749v-7,25,-19,58,-37,99v-93,215,-262,488,-385,703v-5,9,-45,18,-119,27v-23,3,-29,-6,-21,-21r194,-394v-74,-71,-161,-162,-262,-273v-2,-1,-3,-3,-3,-6v0,-11,42,-39,128,-83v6,-3,16,-6,27,-10v80,96,147,166,200,210v35,-67,70,-142,105,-226v12,-28,21,-33,59,-34v12,0,50,3,114,8","w":642},"Z":{"d":"242,-548v-40,-5,-165,23,-201,21v-13,0,-20,-2,-21,-5v-18,-43,-21,-85,-21,-131v0,-10,4,-17,11,-20v89,-17,208,-26,357,-26v43,0,51,3,56,37v4,23,-21,90,-70,201r-137,303v-11,25,-17,39,-17,42v0,3,2,5,6,5v0,0,6,-1,25,-3v80,-9,147,-15,202,-18v11,-1,17,15,17,46v0,37,-10,66,-29,85v-63,25,-124,20,-226,34v-31,4,-129,-5,-131,-22v-8,-73,-15,-52,-5,-89v9,-16,185,-449,184,-460","w":508},"\\":{"d":"552,12v-33,19,-73,60,-121,43r-229,-343v-101,-157,-169,-279,-204,-365v1,-6,8,-16,21,-31v19,-21,49,-31,88,-32v187,289,335,532,445,728","w":589},"^":{"d":"399,-816v4,9,-44,45,-52,39v-28,-7,-114,-71,-139,-79v-39,22,-90,48,-155,79v-8,5,-57,-30,-53,-39v0,-1,31,-29,94,-82v39,-33,72,-55,100,-65v3,-1,7,-1,12,0v17,-1,197,126,193,147","w":373},"`":{"d":"1,-881v-4,-15,69,-89,87,-83v12,0,50,23,114,69v57,41,85,67,85,79v4,9,-44,45,-52,39v-114,-40,-167,-57,-233,-101v-1,-1,-1,-2,-1,-3","w":268},"a":{"d":"480,-9v-7,15,-36,29,-86,39v-36,7,-30,4,-39,-29v-7,-28,-21,-102,-33,-178r-123,30v-19,5,-31,20,-37,44v-9,37,-21,78,-34,122v-43,3,-86,-7,-126,-27r117,-377v40,-129,74,-224,103,-287v28,-9,57,-7,89,1v67,153,123,373,169,662xm294,-275v1,-14,-29,-133,-47,-216v-23,71,-39,139,-59,237r98,-18","w":544},"b":{"d":"308,-724v81,1,167,33,167,129v0,77,-48,162,-143,253v81,6,120,16,150,62v6,18,9,36,9,53v0,67,-43,130,-129,187v-87,58,-203,82,-334,66v-49,-195,-28,-439,2,-667v79,-30,182,-85,278,-83xm128,-364v72,-14,176,-97,185,-168v3,-22,-5,-56,-25,-56v-45,0,-95,13,-150,46v-8,70,-11,129,-10,178xm319,-169v23,-47,-9,-72,-52,-71v-30,0,-77,16,-141,47v-3,43,-3,91,5,123v27,6,45,-3,88,-18v50,-18,83,-46,100,-81","w":555},"c":{"d":"266,8v-158,3,-268,-120,-268,-278v0,-63,14,-125,41,-186v35,-79,101,-144,196,-195v75,-40,153,-46,237,-16v-2,34,-17,104,-29,133v-64,-23,-86,-36,-139,-18v-93,32,-169,138,-169,257v-1,109,55,161,160,162v52,1,88,-23,126,-39v-5,54,-27,140,-45,150v-33,19,-69,30,-110,30","w":492},"d":{"d":"15,-3v-26,-230,-17,-338,-7,-656v105,-23,178,-35,221,-35v100,0,175,40,226,119v17,27,26,60,26,97v0,95,-80,262,-130,316v-86,95,-191,155,-314,177v-11,2,-21,-5,-22,-18xm233,-567v-27,-1,-64,9,-97,23v-22,95,-19,299,-7,399v90,-51,189,-193,189,-322v0,-67,-28,-101,-85,-100","w":533},"e":{"d":"452,-41v-136,40,-186,41,-350,61v-31,4,-93,-18,-93,-45v0,-211,-13,-411,14,-627v3,-19,13,-28,31,-29v125,-5,241,-2,349,9v18,53,17,41,10,106v-53,22,-220,15,-273,25v-3,49,-5,76,-5,82v0,27,3,45,10,54v42,2,191,-7,228,5v9,35,10,79,0,113r-241,16v0,0,-1,15,-2,69v-1,35,1,57,4,64v73,0,211,-12,294,-18v17,32,25,70,24,115","w":478},"f":{"d":"432,-718v11,49,-1,116,-25,141v-45,2,-125,8,-240,18r-9,1v0,24,-7,38,-10,72v-3,30,-4,65,-7,105r3,8v21,-2,166,-17,217,-3v7,30,7,66,3,101v-66,14,-130,19,-230,34v-10,38,-7,209,-14,244v-6,11,-22,16,-48,16v-37,0,-60,-6,-67,-18v-14,-245,1,-491,58,-668v142,-31,265,-48,369,-51","w":463},"g":{"d":"140,-222v-1,76,48,119,123,119v47,0,96,-16,146,-48v13,-14,20,-39,8,-56v-64,11,-106,16,-127,16v-18,0,-29,-3,-32,-9v-11,-58,-15,-98,20,-123v103,-17,160,-25,244,-21v37,79,32,197,10,300v-57,61,-143,87,-259,81v-125,-7,-229,-130,-258,-244v-38,-150,-1,-271,91,-370v85,-92,204,-137,355,-137v12,0,17,5,15,16v5,20,-36,148,-53,144v-94,24,-195,90,-235,163v-32,57,-48,113,-48,169","w":609},"h":{"d":"496,-633v-30,208,-44,497,-61,733v-43,8,-88,8,-134,0v-1,-113,3,-219,13,-316v-44,-7,-88,-6,-133,1v0,6,-17,2,-17,8r-38,215v-41,9,-79,2,-123,-10v2,-298,35,-392,123,-716v0,-12,100,-27,118,-26v16,0,23,3,22,8v-17,89,-37,201,-60,337v48,2,108,4,140,-3v10,-73,26,-161,47,-266v32,-17,66,-26,103,-27v4,12,4,33,0,62","w":557},"i":{"d":"198,-616v-31,119,-55,505,-75,610v-25,21,-60,31,-104,28v-5,-4,-11,-15,-18,-32v0,-228,14,-450,42,-667v31,-6,78,-17,109,-17v55,0,57,34,46,78","w":259},"j":{"d":"448,-673v5,22,24,144,24,212v0,145,-30,324,-82,406v-35,55,-84,82,-147,80v-92,-3,-173,-56,-244,-160v7,-40,56,-80,100,-82v37,50,113,167,170,74v12,-19,20,-40,24,-62v30,-158,28,-322,-18,-458v-4,-37,81,-39,128,-29v28,6,43,11,45,19","w":545},"k":{"d":"442,-626v25,-1,87,45,78,74r-259,227v67,80,169,187,216,269v15,27,-85,71,-111,67v-58,-54,-126,-134,-205,-241v-9,74,-13,209,-40,251v-51,7,-123,8,-123,-27v0,-175,11,-288,14,-341v8,-122,21,-233,38,-333v28,-5,54,-8,77,-8v56,0,60,7,58,58v0,5,-5,73,-14,203v102,-93,160,-142,259,-198v4,-1,8,-1,12,-1"},"l":{"d":"341,-141v7,1,10,13,10,34v1,23,-9,95,-22,98v-69,15,-146,22,-230,22v-43,0,-84,-29,-85,-67v-13,-340,-4,-363,-4,-599v0,-22,81,-37,112,-37v40,0,59,9,57,27v-25,235,-41,339,-24,514v44,9,123,10,186,8","w":398},"m":{"d":"95,23r-81,-6v-21,-18,-17,-32,-7,-67v42,-151,112,-356,209,-613v29,-16,80,-17,102,4v47,135,78,235,95,298r10,0r104,-197v41,-79,67,-121,76,-126v6,-14,65,-14,80,-4v41,177,80,457,110,666v4,28,-50,42,-84,41v-19,0,-31,-3,-36,-8v-7,-4,-19,-52,-36,-145v-15,-84,-26,-164,-35,-241r-85,179v-36,77,-67,134,-93,172v-9,14,-34,4,-51,3v-20,0,-33,-15,-38,-45v-15,-81,-38,-188,-70,-321v-21,84,-93,272,-129,375v-7,23,-21,36,-41,35","w":856},"n":{"d":"626,-632r-59,393v-26,153,-46,239,-59,258v-17,3,-64,32,-92,21v-79,-71,-129,-178,-180,-277r-64,-124r-35,353v-29,22,-51,29,-101,27v-24,-1,-36,-21,-36,-61v0,-113,43,-550,45,-621v13,-19,53,-30,77,-30v10,0,21,5,34,15v73,118,153,261,240,430r11,0v7,-53,30,-197,71,-432v18,0,97,-31,119,-31v32,0,35,42,29,79","w":681},"o":{"d":"475,-52v-77,61,-152,91,-224,90v-82,-1,-139,-18,-175,-49v-78,-67,-91,-206,-60,-332v39,-156,214,-314,376,-348v111,-24,205,30,239,109v22,50,34,103,34,161v0,147,-63,270,-190,369xm527,-461v-2,-52,-32,-90,-87,-90v-106,0,-249,126,-276,211v-31,98,-8,225,97,226v9,0,34,-5,77,-15v37,-9,76,-45,118,-109v49,-74,72,-148,71,-223","w":730},"p":{"d":"282,-695v92,0,155,49,154,138v0,64,-45,128,-134,193v-23,17,-75,49,-156,96v2,37,0,125,-6,264v-47,34,-57,46,-107,30v-41,-165,-41,-476,-4,-646v88,-50,172,-75,253,-75xm140,-411v49,-17,138,-78,153,-123v7,-22,0,-37,-29,-36v-34,0,-72,11,-113,32v-7,46,-11,88,-11,127","w":473},"q":{"d":"599,-455v0,190,-51,280,-137,412v15,27,35,66,57,119v9,23,-128,73,-149,73v-9,0,-15,-2,-18,-6v-9,-15,-29,-54,-59,-119v-94,14,-180,-11,-223,-65v-63,-78,-88,-187,-53,-297v52,-161,175,-338,334,-365v67,-11,120,4,155,24v62,55,93,130,93,224xm173,-250v1,63,17,103,65,110v3,0,7,0,10,-1v-8,-23,-12,-55,-20,-95v-6,-30,73,-69,103,-69v13,0,22,4,27,11v9,13,23,42,41,88v38,-67,57,-135,57,-204v0,-40,-7,-72,-22,-95v-13,-21,-29,-30,-47,-28v-119,9,-216,149,-214,283","w":668},"r":{"d":"322,-252v25,28,269,90,326,91v11,31,-76,147,-96,154v-126,-28,-260,-89,-403,-183v-15,29,-8,192,-10,212v-58,15,-91,23,-134,4v-14,-229,11,-393,67,-643v63,-53,187,-93,298,-93v122,0,183,47,183,141v0,24,-3,45,-10,63v-37,102,-111,187,-221,254xm394,-530v-1,-38,-72,-57,-115,-44v-71,21,-79,15,-95,95v-9,43,-15,92,-17,145v53,-14,102,-38,147,-71v53,-40,80,-82,80,-125","w":700},"s":{"d":"375,-761v7,32,7,70,1,115r-3,5v-123,53,-191,116,-200,191v-6,51,4,84,43,116r84,70v46,40,66,87,61,140v-7,69,-35,116,-86,142v-66,34,-155,41,-226,11v-10,-16,-23,-61,-1,-78r5,-1v46,17,98,11,137,-14v24,-16,29,-55,20,-91v-27,-46,-89,-99,-131,-139v-128,-127,-95,-259,44,-363v63,-47,137,-81,221,-107v10,-3,23,7,31,3","w":425},"t":{"d":"479,-698v3,41,3,86,0,128v-27,1,-66,2,-118,5v-9,1,-21,2,-38,4v-3,3,-6,19,-9,50v-11,116,-31,293,-58,530v-17,15,-64,3,-91,2v-2,-2,-4,-3,-6,-4v-12,-168,-5,-425,6,-575r-123,-3v-29,-1,-42,-11,-40,-29r13,-106v79,-4,161,-6,248,-6v69,0,141,1,216,4","w":526},"u":{"d":"571,-676v8,229,-51,504,-144,631v-39,54,-95,82,-172,82v-41,0,-78,-9,-110,-26v-97,-53,-146,-153,-146,-298v0,-103,30,-254,46,-358v57,-27,97,-44,153,-44v4,2,5,9,3,20v-24,157,-67,335,-33,501v5,25,32,52,58,55v38,5,67,-15,87,-61v29,-65,51,-144,67,-239v2,-11,15,-94,40,-249v48,-20,100,-28,151,-14","w":635},"v":{"d":"619,-683v-24,97,-74,232,-151,404v-79,178,-135,277,-167,297v-5,13,-136,17,-142,-2v-87,-147,-126,-303,-155,-525v-4,-30,-8,-110,0,-145v5,-7,26,-15,63,-24v28,-7,45,-10,50,-10v13,0,24,4,32,13v-7,205,24,385,93,542v133,-244,167,-349,254,-574v5,-5,13,-8,26,-8v25,0,56,7,91,22v0,3,2,6,6,10","w":655},"w":{"d":"884,-686v0,173,-12,293,-21,359v-18,137,-52,250,-106,333v-17,26,-49,37,-90,37v-17,0,-29,-3,-37,-9v-45,-34,-82,-81,-109,-142v-9,-21,-28,-76,-56,-164v-82,205,-163,307,-243,307v-47,0,-94,-28,-129,-90v-39,-70,-60,-160,-73,-265v-5,-35,-8,-130,-21,-286v-2,-27,156,-77,189,-80v10,0,15,3,14,10v-16,189,-19,342,23,480v6,21,27,18,38,0v79,-127,136,-251,169,-372v3,-9,21,-14,55,-14v43,0,65,5,68,14v30,101,71,278,117,339v18,7,21,-4,29,-29v33,-103,50,-257,56,-461v0,-8,13,-12,39,-12v56,0,88,15,88,45","w":955},"x":{"d":"0,-618v-1,-32,106,-69,148,-62v15,3,37,32,65,87r65,130v22,-49,56,-118,103,-207v68,-7,120,-13,182,-5v15,2,21,11,13,22v-91,121,-157,211,-193,274r82,156v39,77,64,131,73,162v-12,17,-73,34,-84,42v-42,14,-53,16,-77,-19v-25,-35,-58,-106,-103,-209v-37,124,-74,224,-111,300v-43,-1,-71,-2,-83,-4v-35,-6,-55,-18,-58,-37v24,-87,66,-213,127,-377","w":618},"y":{"d":"1,-651v74,-43,98,-58,166,-81v65,78,116,159,153,242v63,-109,119,-200,166,-273v54,2,149,2,193,27v-93,116,-193,249,-292,403r-265,414v-21,17,-37,11,-62,-5v-21,-13,-33,-21,-36,-22r-23,-23v44,-98,152,-272,216,-381r-216,-283r0,-18","w":648},"z":{"d":"242,-548v-29,-5,-185,41,-210,41v-7,0,-10,-1,-11,-3v-16,-39,-23,-79,-21,-120v-3,-17,0,-29,11,-31v163,-34,283,-48,357,-48v43,0,51,3,56,37v5,32,-66,207,-208,526v-10,22,-15,35,-16,38v0,17,10,7,31,5v40,-4,53,-7,107,-9v11,-1,17,14,17,45v0,37,-10,66,-29,85v-39,24,-32,14,-132,27v-29,5,-128,-5,-130,-22v-6,-49,-11,-70,-11,-64v0,-8,1,-17,6,-25v11,-18,183,-465,183,-482","w":476},"~":{"d":"394,-821v-25,53,-60,80,-106,79v-22,0,-48,-18,-78,-54v-30,-36,-57,-54,-80,-55v-46,-1,-86,14,-121,45v-7,-9,-10,-24,-9,-45v24,-55,67,-86,128,-92v23,-2,49,14,79,47v31,35,57,53,78,53v40,1,76,-10,107,-32v4,1,6,7,6,18v0,9,-1,21,-4,36","w":368},"\u00a0":{"w":341},"\u00a1":{"d":"155,-555v-57,0,-86,-81,-56,-126v18,-26,54,-32,92,-24v29,14,51,25,52,60v0,21,-7,38,-21,53v-15,25,-37,37,-67,37xm207,-482v-1,236,-13,256,-42,489v-31,6,-78,17,-109,17v-56,0,-65,-36,-46,-78r74,-432v25,-21,60,-31,104,-28v3,2,9,13,19,32","w":300},"\u00a2":{"d":"248,-306v17,24,32,53,38,74v-10,33,-42,57,-95,73r-11,71v-32,15,-81,14,-94,-11v-1,-18,-2,-38,-1,-60v-57,-25,-85,-75,-85,-150v1,-105,55,-186,130,-224r8,-59v21,-26,60,-18,97,-14r-3,59v15,5,29,13,41,22r3,5v-2,25,-13,59,-26,88v-28,-29,-66,-38,-101,-15v-45,29,-68,80,-69,153v0,36,20,58,57,59v44,1,84,-27,111,-71","w":348},"\u00a8":{"d":"318,-944v57,0,86,81,56,126v-18,26,-55,34,-92,24v-27,-7,-43,-25,-51,-45v-4,-29,4,-50,21,-68v15,-25,37,-37,66,-37xm81,-946v42,0,58,23,58,64v0,62,-29,90,-86,84v-34,-11,-51,-33,-51,-65v0,-40,39,-83,79,-83","w":360},"\u00a9":{"d":"600,-372v0,92,-24,177,-72,254v-58,93,-139,139,-244,139v-55,0,-105,-14,-149,-42v-91,-57,-136,-149,-136,-278v0,-127,40,-230,124,-307v112,-104,206,-140,329,-55v100,69,148,167,148,289xm266,-36v84,2,216,-90,241,-154v51,-129,38,-287,-41,-383v-79,-96,-217,-92,-301,-2v-96,102,-133,243,-88,397v13,48,93,113,141,133v14,6,30,9,48,9xm111,-290v0,-155,124,-295,241,-293v29,0,57,11,85,32v-3,37,-13,71,-28,101v-32,-38,-83,-43,-125,-15v-58,38,-86,103,-88,194v-1,47,29,80,77,80v48,0,94,-28,137,-83v18,24,31,51,40,82v-23,54,-113,92,-188,92v-91,0,-151,-86,-151,-190","w":669},"\u00ad":{"d":"594,-384v0,16,-23,71,-24,80v-229,17,-302,16,-539,5v-8,-3,-18,-10,-31,-21v-3,-41,16,-40,31,-59r243,-26v69,-6,149,-11,242,-14v52,-2,78,10,78,35","w":672},"\u00ae":{"d":"630,-372v0,92,-24,177,-73,254v-58,93,-139,139,-243,139v-55,0,-105,-14,-150,-42v-91,-56,-136,-149,-136,-278v1,-126,54,-243,124,-307v113,-102,207,-140,329,-55v100,70,149,168,149,289xm295,-36v83,2,215,-91,241,-154v78,-185,5,-452,-186,-455v-59,0,-110,23,-155,70v-98,103,-135,243,-88,397v14,47,93,113,141,133v14,6,30,9,47,9xm491,-244r-28,72v-59,-12,-107,-36,-181,-72v-7,38,-11,83,-10,134v-3,1,-28,1,-75,2v-24,-123,-11,-322,23,-416v63,-35,117,-53,162,-53v54,-1,100,30,101,79v2,38,-11,77,-39,116v-10,14,-39,46,-86,97v43,17,88,31,133,41xm392,-483v-3,-17,-12,-26,-28,-26v-13,0,-33,6,-59,19v-6,43,-19,109,-16,150v65,-49,99,-96,103,-143","w":698},"\u00b1":{"d":"371,-433v0,24,-1,48,-19,57v-41,9,-75,15,-102,18r-15,92v-25,21,-60,30,-104,28v-4,-3,-10,-14,-19,-33v-1,-25,-2,-55,-5,-92v-18,-2,-45,-5,-81,-10v-33,-30,-31,-70,-18,-126v39,-2,72,-4,101,-6v3,-25,7,-62,14,-113v5,-1,81,-17,98,-17v46,0,63,30,57,78r-6,50v24,1,50,3,79,6v13,24,20,47,20,68xm339,-130v0,23,-5,46,-20,57v-140,30,-120,22,-292,3v-33,-30,-31,-70,-18,-126v114,-7,211,-11,309,-2v14,24,21,47,21,68","w":437},"\u00b2":{"d":"164,-541v-25,-5,-109,22,-130,20v-7,0,-12,-1,-13,-4v-18,-43,-21,-86,-21,-132v0,-10,4,-17,11,-20v89,-17,182,-26,279,-26v44,0,63,7,56,37v-45,192,-104,374,-175,545v-3,9,-4,20,6,20v3,0,8,-1,13,-4r262,-134v8,-4,13,7,18,31v8,40,6,87,-7,115v-23,29,-190,118,-295,158v-65,25,-93,41,-119,34v-19,-33,-28,-63,-28,-90v0,-17,11,-62,33,-135v74,-247,111,-384,111,-411v0,-3,0,-4,-1,-4","w":530},"\u00b4":{"d":"199,-964v18,-4,95,67,86,86v-30,23,-108,56,-233,101v-7,6,-56,-31,-52,-39v-12,-18,194,-160,199,-148","w":266},"\u00bd":{"d":"150,-702v42,0,58,16,47,55v-1,19,-44,296,-44,358v0,51,7,97,18,137v8,31,44,34,64,14v35,-37,61,-104,78,-202v10,-64,23,-187,23,-295v0,-40,39,-27,86,-27v21,0,37,5,49,14v9,34,13,73,13,117v0,115,-20,228,-61,339v-55,151,-131,227,-226,227v-118,0,-202,-126,-197,-272v5,-140,18,-252,63,-438v4,-17,59,-27,87,-27","w":550},"\u00bf":{"d":"289,-588v-57,0,-79,-82,-48,-124v20,-27,55,-37,93,-27v26,7,42,22,49,42v3,27,-4,50,-23,69v-17,27,-40,40,-71,40xm429,-2v-8,10,-25,14,-50,12v-183,-11,-361,-116,-379,-281v15,-88,49,-110,131,-149v42,-20,72,-40,91,-59v7,-7,9,-22,12,-45v3,-21,39,-41,64,-41v15,0,37,4,63,15v30,12,18,87,-4,109v-18,19,-54,46,-111,79v-41,23,-64,52,-67,85v5,51,33,94,90,113r149,49v9,51,13,88,11,113","w":486},"\u00c0":{"d":"81,-882v-4,-15,69,-88,87,-82v12,0,50,23,114,69v57,41,85,67,85,79v4,9,-44,45,-52,39v-114,-41,-165,-56,-232,-101v-1,-1,-2,-2,-2,-4xm510,-11v-23,15,-55,21,-97,20v-17,-22,-40,-79,-61,-142v-73,8,-139,21,-194,40r-2,6v-5,23,-10,55,-26,92v-18,40,-79,23,-132,18v11,-95,36,-212,77,-350v17,-57,55,-175,112,-353v3,-8,76,-14,88,-11v12,17,33,48,55,97v73,159,131,355,180,583xm314,-246v-10,-36,-54,-169,-81,-236r-17,69v-8,31,-28,120,-41,199v51,0,51,-7,139,-32"},"\u00c1":{"d":"314,-964v18,-6,91,67,87,82v0,2,-1,3,-2,4v-31,24,-109,58,-232,101v-8,6,-56,-30,-52,-39v-12,-18,194,-160,199,-148xm510,-11v-23,15,-55,21,-97,20v-17,-22,-40,-79,-61,-142v-73,8,-139,21,-194,40r-2,6v-5,23,-10,55,-26,92v-18,40,-79,23,-132,18v11,-95,36,-212,77,-350v17,-57,55,-175,112,-353v3,-8,76,-14,88,-11v12,17,33,48,55,97v73,159,131,355,180,583xm314,-246v-10,-36,-54,-169,-81,-236r-17,69v-8,31,-28,120,-41,199v51,0,51,-7,139,-32"},"\u00c2":{"d":"455,-816v4,9,-45,45,-52,39v-30,-9,-113,-70,-139,-79v-39,22,-92,48,-156,79v-7,4,-57,-30,-53,-39v0,-1,32,-28,95,-82v39,-33,72,-55,99,-65v10,-1,14,1,23,4v18,6,188,124,183,143xm510,-11v-23,15,-55,21,-97,20v-17,-22,-40,-79,-61,-142v-73,8,-139,21,-194,40r-2,6v-5,23,-10,55,-26,92v-18,40,-79,23,-132,18v11,-95,36,-212,77,-350v17,-57,55,-175,112,-353v3,-8,76,-14,88,-11v12,17,33,48,55,97v73,159,131,355,180,583xm314,-246v-10,-36,-54,-169,-81,-236r-17,69v-8,31,-28,120,-41,199v51,0,51,-7,139,-32"},"\u00c3":{"d":"455,-821v-25,53,-60,80,-106,79v-22,0,-49,-18,-79,-54v-30,-36,-56,-54,-79,-55v-46,-1,-86,14,-121,45v-7,-9,-10,-24,-9,-45v24,-55,67,-86,128,-92v22,-2,49,13,79,47v32,35,58,53,79,53v39,1,75,-10,106,-32v4,1,6,7,6,18v0,9,-1,21,-4,36xm510,-11v-23,15,-55,21,-97,20v-17,-22,-40,-79,-61,-142v-73,8,-139,21,-194,40r-2,6v-5,23,-10,55,-26,92v-18,40,-79,23,-132,18v11,-95,36,-212,77,-350v17,-57,55,-175,112,-353v3,-8,76,-14,88,-11v12,17,33,48,55,97v73,159,131,355,180,583xm314,-246v-10,-36,-54,-169,-81,-236r-17,69v-8,31,-28,120,-41,199v51,0,51,-7,139,-32"},"\u00c4":{"d":"372,-944v57,0,86,81,56,126v-18,26,-54,32,-92,24v-30,-14,-52,-25,-52,-61v0,-21,7,-38,21,-52v15,-25,37,-37,67,-37xm55,-863v0,-40,40,-83,80,-83v27,0,48,9,54,29v18,65,-14,133,-82,119v-36,-7,-52,-33,-52,-65xm510,-11v-23,15,-55,21,-97,20v-17,-22,-40,-79,-61,-142v-73,8,-139,21,-194,40r-2,6v-5,23,-10,55,-26,92v-18,40,-79,23,-132,18v11,-95,36,-212,77,-350v17,-57,55,-175,112,-353v3,-8,76,-14,88,-11v12,17,33,48,55,97v73,159,131,355,180,583xm314,-246v-10,-36,-54,-169,-81,-236r-17,69v-8,31,-28,120,-41,199v51,0,51,-7,139,-32"},"\u00c8":{"d":"157,-882v-4,-15,70,-88,87,-82v13,0,51,23,115,69v57,41,85,67,85,79v4,9,-45,45,-53,39v-114,-41,-165,-56,-232,-101v-1,-1,-2,-2,-2,-4xm38,5v-20,-3,-39,-24,-39,-47v7,-255,32,-425,103,-609v95,-21,213,-33,354,-36v7,42,-19,108,-41,130v-79,5,-149,10,-211,17r-9,1v3,15,-35,107,-15,133v69,-2,162,-14,220,0v6,33,3,61,-5,97v-57,13,-165,21,-235,32v-11,33,-11,83,-5,136v34,10,193,-30,260,-9v-1,13,-2,36,-6,69v-3,29,-15,46,-33,49v-95,19,-228,26,-338,37","w":486},"\u00c9":{"d":"355,-964v18,-6,92,67,88,82v0,2,-1,3,-2,4v-31,24,-109,58,-232,101v-8,6,-57,-30,-53,-39v-12,-18,194,-160,199,-148xm38,5v-20,-3,-39,-24,-39,-47v7,-255,32,-425,103,-609v95,-21,213,-33,354,-36v7,42,-19,108,-41,130v-79,5,-149,10,-211,17r-9,1v3,15,-35,107,-15,133v69,-2,162,-14,220,0v6,33,3,61,-5,97v-57,13,-165,21,-235,32v-11,33,-11,83,-5,136v34,10,193,-30,260,-9v-1,13,-2,36,-6,69v-3,29,-15,46,-33,49v-95,19,-228,26,-338,37","w":486},"\u00ca":{"d":"493,-816v4,9,-45,45,-53,39v-28,-7,-114,-71,-139,-79v-39,22,-91,48,-155,79v-7,4,-57,-30,-53,-39v0,-1,31,-29,94,-82v39,-33,72,-55,100,-65v3,-1,8,-1,13,0v36,15,189,120,193,147xm38,5v-20,-3,-39,-24,-39,-47v7,-255,32,-425,103,-609v95,-21,213,-33,354,-36v7,42,-19,108,-41,130v-79,5,-149,10,-211,17r-9,1v3,15,-35,107,-15,133v69,-2,162,-14,220,0v6,33,3,61,-5,97v-57,13,-165,21,-235,32v-11,33,-11,83,-5,136v34,10,193,-30,260,-9v-1,13,-2,36,-6,69v-3,29,-15,46,-33,49v-95,19,-228,26,-338,37","w":486},"\u00cb":{"d":"417,-944v57,0,86,81,56,126v-18,26,-54,32,-92,24v-30,-14,-52,-25,-52,-61v0,-21,7,-38,21,-52v15,-25,37,-37,67,-37xm100,-855v0,-40,40,-83,80,-83v27,0,45,10,54,29v2,13,3,25,3,36v0,62,-28,90,-85,84v-35,-13,-52,-35,-52,-66xm38,5v-20,-3,-39,-24,-39,-47v7,-255,32,-425,103,-609v95,-21,213,-33,354,-36v7,42,-19,108,-41,130v-79,5,-149,10,-211,17r-9,1v3,15,-35,107,-15,133v69,-2,162,-14,220,0v6,33,3,61,-5,97v-57,13,-165,21,-235,32v-11,33,-11,83,-5,136v34,10,193,-30,260,-9v-1,13,-2,36,-6,69v-3,29,-15,46,-33,49v-95,19,-228,26,-338,37","w":486},"\u00cc":{"d":"-16,-881v-4,-15,69,-89,87,-83v12,0,50,23,114,69v57,41,85,67,85,79v4,9,-44,45,-52,39v-114,-40,-167,-57,-233,-101v-1,-1,-1,-2,-1,-3xm181,-687v-9,203,-26,432,-51,687v-45,18,-61,22,-111,5v-7,-2,-12,-6,-15,-12v-13,-253,15,-389,50,-664v27,-32,79,-23,127,-16","w":252},"\u00cd":{"d":"199,-964v18,-4,95,67,86,86v-30,23,-108,56,-233,101v-7,6,-56,-31,-52,-39v-12,-18,194,-160,199,-148xm181,-687v-9,203,-26,432,-51,687v-45,18,-61,22,-111,5v-7,-2,-12,-6,-15,-12v-13,-253,15,-389,50,-664v27,-32,79,-23,127,-16","w":266},"\u00ce":{"d":"332,-816v4,10,-44,42,-53,39v-29,-11,-109,-69,-138,-79v-39,22,-92,48,-156,79v-7,4,-57,-30,-53,-39v0,-1,32,-28,95,-82v39,-33,72,-55,99,-65v9,-1,14,1,23,4v18,7,188,124,183,143xm181,-687v-9,203,-26,432,-51,687v-45,18,-61,22,-111,5v-7,-2,-12,-6,-15,-12v-13,-253,15,-389,50,-664v27,-32,79,-23,127,-16","w":310},"\u00cf":{"d":"267,-944v57,0,86,81,56,126v-18,26,-55,34,-92,24v-27,-7,-43,-25,-51,-45v-4,-29,4,-50,21,-68v15,-25,37,-37,66,-37xm30,-946v42,0,58,23,58,64v0,62,-29,90,-86,84v-34,-11,-51,-33,-51,-65v0,-40,39,-83,79,-83xm181,-687v-9,203,-26,432,-51,687v-45,18,-61,22,-111,5v-7,-2,-12,-6,-15,-12v-13,-253,15,-389,50,-664v27,-32,79,-23,127,-16","w":312},"\u00d1":{"d":"495,-821v-25,53,-61,80,-107,79v-21,0,-47,-18,-78,-54v-31,-36,-57,-54,-79,-55v-47,-1,-87,14,-122,45v-7,-9,-10,-24,-9,-45v24,-55,67,-86,128,-92v22,-2,49,13,79,47v32,35,58,53,79,53v39,1,75,-10,106,-32v10,7,6,35,3,54xm560,-684v45,79,22,238,14,343v-5,59,-22,249,-35,306v-16,16,-34,25,-55,27v-26,-28,-137,-140,-333,-335v-5,112,-3,245,-29,331v-63,29,-65,29,-118,-6r0,-421v-1,-83,-2,-152,-5,-206v15,-27,41,-42,79,-45v82,92,198,211,347,357v8,-57,8,-243,16,-308v3,-25,78,-51,119,-43","w":654},"\u00d2":{"d":"199,-882v-4,-15,69,-88,87,-82v13,0,52,23,115,69v56,41,84,67,84,79v4,9,-44,45,-52,39v-114,-41,-165,-56,-232,-101v-1,-1,-2,-2,-2,-4xm604,-368v0,92,-24,177,-73,255v-58,93,-139,139,-243,139v-57,0,-107,-14,-151,-41v-91,-57,-137,-150,-137,-280v0,-129,53,-240,125,-307v72,-68,140,-102,203,-102v43,0,85,15,127,46v99,72,149,169,149,290xm290,-119v114,-7,153,-155,155,-267v0,-45,-6,-87,-23,-124v-21,-46,-26,-56,-88,-56v-49,0,-88,21,-117,62v-63,94,-92,178,-59,289v11,36,43,65,93,88v12,5,25,8,39,8","w":673},"\u00d3":{"d":"397,-964v18,-4,95,67,86,86v-30,23,-108,56,-233,101v-7,6,-56,-31,-52,-39v-12,-18,194,-160,199,-148xm604,-368v0,92,-24,177,-73,255v-58,93,-139,139,-243,139v-57,0,-107,-14,-151,-41v-91,-57,-137,-150,-137,-280v0,-129,53,-240,125,-307v72,-68,140,-102,203,-102v43,0,85,15,127,46v99,72,149,169,149,290xm290,-119v114,-7,153,-155,155,-267v0,-45,-6,-87,-23,-124v-21,-46,-26,-56,-88,-56v-49,0,-88,21,-117,62v-63,94,-92,178,-59,289v11,36,43,65,93,88v12,5,25,8,39,8","w":673},"\u00d4":{"d":"538,-816v4,9,-44,45,-52,39v-28,-7,-114,-71,-139,-79v-39,22,-91,48,-155,79v-7,4,-57,-30,-53,-39v0,-1,31,-29,94,-82v39,-33,72,-55,100,-65v3,-1,7,-1,12,0v17,-1,197,126,193,147xm604,-368v0,92,-24,177,-73,255v-58,93,-139,139,-243,139v-57,0,-107,-14,-151,-41v-91,-57,-137,-150,-137,-280v0,-129,53,-240,125,-307v72,-68,140,-102,203,-102v43,0,85,15,127,46v99,72,149,169,149,290xm290,-119v114,-7,153,-155,155,-267v0,-45,-6,-87,-23,-124v-21,-46,-26,-56,-88,-56v-49,0,-88,21,-117,62v-63,94,-92,178,-59,289v11,36,43,65,93,88v12,5,25,8,39,8","w":673},"\u00d5":{"d":"542,-821v-25,53,-60,80,-106,79v-22,0,-48,-18,-78,-54v-30,-36,-57,-54,-80,-55v-46,-1,-86,14,-121,45v-7,-9,-11,-24,-10,-45v25,-55,67,-86,128,-92v22,-2,48,14,79,47v32,35,58,53,79,53v40,1,75,-10,106,-32v10,7,5,34,3,54xm604,-368v0,92,-24,177,-73,255v-58,93,-139,139,-243,139v-57,0,-107,-14,-151,-41v-91,-57,-137,-150,-137,-280v0,-129,53,-240,125,-307v72,-68,140,-102,203,-102v43,0,85,15,127,46v99,72,149,169,149,290xm290,-119v114,-7,153,-155,155,-267v0,-45,-6,-87,-23,-124v-21,-46,-26,-56,-88,-56v-49,0,-88,21,-117,62v-63,94,-92,178,-59,289v11,36,43,65,93,88v12,5,25,8,39,8","w":673},"\u00d6":{"d":"476,-944v56,0,87,81,56,126v-18,27,-55,35,-93,24v-27,-7,-43,-25,-51,-45v-4,-29,4,-50,21,-68v15,-25,37,-37,67,-37xm159,-863v0,-40,39,-83,79,-83v28,0,46,10,55,29v2,12,3,24,3,35v0,62,-28,90,-85,84v-35,-11,-52,-33,-52,-65xm604,-368v0,92,-24,177,-73,255v-58,93,-139,139,-243,139v-57,0,-107,-14,-151,-41v-91,-57,-137,-150,-137,-280v0,-129,53,-240,125,-307v72,-68,140,-102,203,-102v43,0,85,15,127,46v99,72,149,169,149,290xm290,-119v114,-7,153,-155,155,-267v0,-45,-6,-87,-23,-124v-21,-46,-26,-56,-88,-56v-49,0,-88,21,-117,62v-63,94,-92,178,-59,289v11,36,43,65,93,88v12,5,25,8,39,8","w":673},"\u00d9":{"d":"126,-881v-4,-15,69,-89,87,-83v12,0,50,23,114,69v57,41,85,67,85,79v4,9,-45,45,-52,39v-74,-27,-186,-64,-233,-101v-1,-1,-1,-2,-1,-3xm488,-677v0,161,-6,276,-17,347v-21,129,-67,229,-135,305v-60,68,-181,65,-238,-4v-64,-77,-98,-183,-98,-320v0,-53,12,-167,36,-342v9,-14,36,-21,83,-21v38,0,59,5,63,16r-22,178v-15,128,-21,261,15,350v10,25,44,39,74,28v47,-35,78,-141,93,-318v3,-35,6,-105,10,-210v6,-14,32,-21,77,-21v33,0,53,4,59,12","w":560},"\u00da":{"d":"345,-964v18,-4,95,67,86,86v-31,23,-108,57,-232,101v-8,6,-57,-30,-53,-39v-12,-18,194,-160,199,-148xm488,-677v0,161,-6,276,-17,347v-21,129,-67,229,-135,305v-60,68,-181,65,-238,-4v-64,-77,-98,-183,-98,-320v0,-53,12,-167,36,-342v9,-14,36,-21,83,-21v38,0,59,5,63,16r-22,178v-15,128,-21,261,15,350v10,25,44,39,74,28v47,-35,78,-141,93,-318v3,-35,6,-105,10,-210v6,-14,32,-21,77,-21v33,0,53,4,59,12","w":560},"\u00db":{"d":"481,-816v4,9,-45,45,-53,39v-28,-7,-114,-71,-139,-79v-39,22,-91,48,-155,79v-7,4,-57,-30,-53,-39v0,-1,31,-29,94,-82v39,-33,72,-55,100,-65v3,-1,7,-1,12,0v16,-1,199,127,194,147xm488,-677v0,161,-6,276,-17,347v-21,129,-67,229,-135,305v-60,68,-181,65,-238,-4v-64,-77,-98,-183,-98,-320v0,-53,12,-167,36,-342v9,-14,36,-21,83,-21v38,0,59,5,63,16r-22,178v-15,128,-21,261,15,350v10,25,44,39,74,28v47,-35,78,-141,93,-318v3,-35,6,-105,10,-210v6,-14,32,-21,77,-21v33,0,53,4,59,12","w":560},"\u00dc":{"d":"407,-944v57,0,86,81,56,126v-18,26,-55,34,-92,24v-27,-8,-44,-25,-52,-45v-4,-29,4,-50,21,-68v15,-25,37,-37,67,-37xm90,-863v0,-40,39,-83,79,-83v28,0,46,10,55,29v2,12,3,24,3,35v0,62,-28,90,-85,84v-35,-11,-52,-33,-52,-65xm488,-677v0,161,-6,276,-17,347v-21,129,-67,229,-135,305v-60,68,-181,65,-238,-4v-64,-77,-98,-183,-98,-320v0,-53,12,-167,36,-342v9,-14,36,-21,83,-21v38,0,59,5,63,16r-22,178v-15,128,-21,261,15,350v10,25,44,39,74,28v47,-35,78,-141,93,-318v3,-35,6,-105,10,-210v6,-14,32,-21,77,-21v33,0,53,4,59,12","w":560},"\u00dd":{"d":"400,-964v18,-6,92,67,88,82v0,2,-1,3,-2,4v-31,24,-109,58,-232,101v-8,6,-57,-30,-53,-39v-12,-18,194,-160,199,-148xm633,-749v-7,25,-19,58,-37,99v-93,215,-262,488,-385,703v-5,9,-45,18,-119,27v-23,3,-29,-6,-21,-21r194,-394v-74,-71,-161,-162,-262,-273v-2,-1,-3,-3,-3,-6v0,-11,42,-39,128,-83v6,-3,16,-6,27,-10v80,96,147,166,200,210v35,-67,70,-142,105,-226v12,-28,21,-33,59,-34v12,0,50,3,114,8","w":642},"\u00df":{"d":"797,-761v3,40,9,86,-3,120v-134,57,-201,129,-201,214v0,35,14,67,45,93r83,70v47,40,67,87,62,140v-7,69,-35,116,-86,142v-66,34,-155,41,-226,11v-11,-22,-24,-58,-2,-78r6,-1v46,17,97,11,136,-14v25,-16,29,-55,20,-91v-30,-49,-88,-98,-131,-139v-126,-124,-95,-261,44,-363v63,-47,136,-83,221,-107v11,-4,23,7,32,3xm439,-751v1,25,-4,63,-16,114v-29,20,-157,70,-186,98v-27,26,-46,55,-51,91v2,33,15,60,40,80v6,5,32,20,78,45v79,43,114,115,92,212v-17,74,-91,123,-214,147v-45,9,-110,13,-130,-14v-1,-33,3,-64,10,-93v50,1,84,-1,101,-4v37,-7,64,-25,79,-53v9,-57,16,-57,-3,-90v-15,-27,-48,-50,-91,-73v-52,-28,-85,-48,-98,-59v-31,-27,-48,-60,-51,-101v14,-84,63,-155,146,-213v63,-45,156,-79,262,-101v15,0,25,5,32,14","w":852},"\u00e0":{"d":"110,-882v-4,-15,70,-88,87,-82v13,0,51,23,115,69v57,41,85,67,85,79v4,9,-45,45,-53,39v-114,-41,-165,-56,-232,-101v-1,-1,-2,-2,-2,-4xm480,-9v-7,15,-36,29,-86,39v-36,7,-30,4,-39,-29v-7,-28,-21,-102,-33,-178r-123,30v-19,5,-31,20,-37,44v-9,37,-21,78,-34,122v-43,3,-86,-7,-126,-27r117,-377v40,-129,74,-224,103,-287v28,-9,57,-7,89,1v67,153,123,373,169,662xm294,-275v1,-14,-29,-133,-47,-216v-23,71,-39,139,-59,237r98,-18","w":538},"\u00e1":{"d":"318,-964v17,-5,91,67,87,82v0,2,-1,3,-2,4v-31,24,-109,58,-232,101v-8,6,-57,-30,-53,-39v-11,-18,194,-160,200,-148xm480,-9v-7,15,-36,29,-86,39v-36,7,-30,4,-39,-29v-7,-28,-21,-102,-33,-178r-123,30v-19,5,-31,20,-37,44v-9,37,-21,78,-34,122v-43,3,-86,-7,-126,-27r117,-377v40,-129,74,-224,103,-287v28,-9,57,-7,89,1v67,153,123,373,169,662xm294,-275v1,-14,-29,-133,-47,-216v-23,71,-39,139,-59,237r98,-18","w":538},"\u00e2":{"d":"457,-816v4,10,-44,42,-53,39v-29,-11,-109,-69,-138,-79v-39,22,-92,48,-156,79v-7,4,-57,-30,-53,-39v0,-1,32,-28,95,-82v39,-33,72,-55,99,-65v9,-1,14,1,23,4v18,7,188,124,183,143xm480,-9v-7,15,-36,29,-86,39v-36,7,-30,4,-39,-29v-7,-28,-21,-102,-33,-178r-123,30v-19,5,-31,20,-37,44v-9,37,-21,78,-34,122v-43,3,-86,-7,-126,-27r117,-377v40,-129,74,-224,103,-287v28,-9,57,-7,89,1v67,153,123,373,169,662xm294,-275v1,-14,-29,-133,-47,-216v-23,71,-39,139,-59,237r98,-18","w":538},"\u00e3":{"d":"462,-821v-25,53,-60,80,-106,79v-22,0,-48,-18,-78,-54v-30,-36,-57,-54,-80,-55v-46,-1,-86,14,-121,45v-7,-9,-10,-24,-9,-45v24,-56,66,-87,127,-92v23,-2,50,13,80,47v32,35,57,53,78,53v40,1,76,-10,107,-32v4,1,6,7,6,18v0,9,-1,21,-4,36xm480,-9v-7,15,-36,29,-86,39v-36,7,-30,4,-39,-29v-7,-28,-21,-102,-33,-178r-123,30v-19,5,-31,20,-37,44v-9,37,-21,78,-34,122v-43,3,-86,-7,-126,-27r117,-377v40,-129,74,-224,103,-287v28,-9,57,-7,89,1v67,153,123,373,169,662xm294,-275v1,-14,-29,-133,-47,-216v-23,71,-39,139,-59,237r98,-18","w":538},"\u00e4":{"d":"400,-944v57,0,86,81,56,126v-18,26,-54,32,-92,24v-30,-14,-52,-25,-52,-61v0,-21,7,-38,21,-52v15,-25,37,-37,67,-37xm83,-863v0,-40,40,-83,80,-83v27,0,45,10,54,29v2,12,3,24,3,35v0,62,-28,90,-85,84v-35,-11,-52,-33,-52,-65xm480,-9v-7,15,-36,29,-86,39v-36,7,-30,4,-39,-29v-7,-28,-21,-102,-33,-178r-123,30v-19,5,-31,20,-37,44v-9,37,-21,78,-34,122v-43,3,-86,-7,-126,-27r117,-377v40,-129,74,-224,103,-287v28,-9,57,-7,89,1v67,153,123,373,169,662xm294,-275v1,-14,-29,-133,-47,-216v-23,71,-39,139,-59,237r98,-18","w":538},"\u00e8":{"d":"84,-882v-4,-15,69,-88,87,-82v12,0,50,23,114,69v57,41,85,67,85,79v4,9,-44,45,-52,39v-114,-41,-165,-56,-232,-101v-1,-1,-2,-2,-2,-4xm452,-41v-136,40,-186,41,-350,61v-31,4,-93,-18,-93,-45v0,-211,-13,-411,14,-627v3,-19,13,-28,31,-29v125,-5,241,-2,349,9v18,53,17,41,10,106v-53,22,-220,15,-273,25v-3,49,-5,76,-5,82v0,27,3,45,10,54v42,2,191,-7,228,5v9,35,10,79,0,113r-241,16v0,0,-1,15,-2,69v-1,35,1,57,4,64v73,0,211,-12,294,-18v17,32,25,70,24,115","w":500},"\u00e9":{"d":"289,-964v18,-6,92,67,88,82v0,2,-1,3,-2,4v-31,24,-109,58,-232,101v-8,6,-57,-30,-53,-39v-12,-18,194,-160,199,-148xm452,-41v-136,40,-186,41,-350,61v-31,4,-93,-18,-93,-45v0,-211,-13,-411,14,-627v3,-19,13,-28,31,-29v125,-5,241,-2,349,9v18,53,17,41,10,106v-53,22,-220,15,-273,25v-3,49,-5,76,-5,82v0,27,3,45,10,54v42,2,191,-7,228,5v9,35,10,79,0,113r-241,16v0,0,-1,15,-2,69v-1,35,1,57,4,64v73,0,211,-12,294,-18v17,32,25,70,24,115","w":500},"\u00ea":{"d":"425,-816v4,10,-44,42,-53,39v-29,-11,-109,-69,-138,-79v-39,22,-92,48,-156,79v-7,4,-57,-30,-53,-39v0,-1,32,-28,95,-82v39,-33,72,-55,99,-65v9,-1,14,1,23,4v18,7,188,124,183,143xm452,-41v-136,40,-186,41,-350,61v-31,4,-93,-18,-93,-45v0,-211,-13,-411,14,-627v3,-19,13,-28,31,-29v125,-5,241,-2,349,9v18,53,17,41,10,106v-53,22,-220,15,-273,25v-3,49,-5,76,-5,82v0,27,3,45,10,54v42,2,191,-7,228,5v9,35,10,79,0,113r-241,16v0,0,-1,15,-2,69v-1,35,1,57,4,64v73,0,211,-12,294,-18v17,32,25,70,24,115","w":500},"\u00eb":{"d":"344,-944v57,0,86,81,56,126v-18,26,-54,32,-92,24v-30,-14,-52,-25,-52,-61v0,-21,7,-38,21,-52v15,-25,37,-37,67,-37xm27,-863v0,-40,40,-83,80,-83v27,0,45,10,54,29v2,12,3,24,3,35v0,62,-28,90,-85,84v-35,-11,-52,-33,-52,-65xm452,-41v-136,40,-186,41,-350,61v-31,4,-93,-18,-93,-45v0,-211,-13,-411,14,-627v3,-19,13,-28,31,-29v125,-5,241,-2,349,9v18,53,17,41,10,106v-53,22,-220,15,-273,25v-3,49,-5,76,-5,82v0,27,3,45,10,54v42,2,191,-7,228,5v9,35,10,79,0,113r-241,16v0,0,-1,15,-2,69v-1,35,1,57,4,64v73,0,211,-12,294,-18v17,32,25,70,24,115","w":500},"\u00ec":{"d":"-16,-881v-4,-15,69,-89,87,-83v12,0,50,23,114,69v57,41,85,67,85,79v4,9,-44,45,-52,39v-114,-40,-167,-57,-233,-101v-1,-1,-1,-2,-1,-3xm198,-616v-31,119,-55,505,-75,610v-25,21,-60,31,-104,28v-5,-4,-11,-15,-18,-32v0,-228,14,-450,42,-667v31,-6,78,-17,109,-17v55,0,57,34,46,78","w":259},"\u00ed":{"d":"199,-964v18,-4,95,67,86,86v-30,23,-108,56,-233,101v-7,6,-56,-31,-52,-39v-12,-18,194,-160,199,-148xm198,-616v-31,119,-55,505,-75,610v-25,21,-60,31,-104,28v-5,-4,-11,-15,-18,-32v0,-228,14,-450,42,-667v31,-6,78,-17,109,-17v55,0,57,34,46,78","w":266},"\u00ee":{"d":"332,-816v4,10,-44,42,-53,39v-29,-11,-109,-69,-138,-79v-39,22,-92,48,-156,79v-7,4,-57,-30,-53,-39v0,-1,32,-28,95,-82v39,-33,72,-55,99,-65v9,-1,14,1,23,4v18,7,188,124,183,143xm198,-616v-31,119,-55,505,-75,610v-25,21,-60,31,-104,28v-5,-4,-11,-15,-18,-32v0,-228,14,-450,42,-667v31,-6,78,-17,109,-17v55,0,57,34,46,78","w":310},"\u00ef":{"d":"267,-944v57,0,86,81,56,126v-18,26,-55,34,-92,24v-27,-7,-43,-25,-51,-45v-4,-29,4,-50,21,-68v15,-25,37,-37,66,-37xm30,-946v42,0,58,23,58,64v0,62,-29,90,-86,84v-34,-11,-51,-33,-51,-65v0,-40,39,-83,79,-83xm198,-616v-31,119,-55,505,-75,610v-25,21,-60,31,-104,28v-5,-4,-11,-15,-18,-32v0,-228,14,-450,42,-667v31,-6,78,-17,109,-17v55,0,57,34,46,78","w":312},"\u00f1":{"d":"540,-821v-25,53,-60,80,-106,79v-22,0,-48,-18,-79,-54v-31,-36,-57,-54,-79,-55v-47,-1,-87,14,-121,45v-8,-9,-11,-24,-10,-45v24,-55,67,-86,128,-92v22,-2,49,13,79,47v32,35,58,53,79,53v39,1,75,-10,106,-32v10,7,5,34,3,54xm626,-632r-59,393v-26,153,-46,239,-59,258v-17,3,-64,32,-92,21v-79,-71,-129,-178,-180,-277r-64,-124r-35,353v-29,22,-51,29,-101,27v-24,-1,-36,-21,-36,-61v0,-113,43,-550,45,-621v13,-19,53,-30,77,-30v10,0,21,5,34,15v73,118,153,261,240,430r11,0v7,-53,30,-197,71,-432v18,0,97,-31,119,-31v32,0,35,42,29,79","w":687},"\u00f2":{"d":"313,-882v-4,-15,70,-88,88,-82v12,0,50,23,114,69v57,41,85,67,85,79v4,9,-45,45,-53,39v-114,-41,-165,-56,-232,-101v-1,-1,-2,-2,-2,-4xm475,-52v-77,61,-152,91,-224,90v-82,-1,-139,-18,-175,-49v-78,-67,-91,-206,-60,-332v39,-156,214,-314,376,-348v111,-24,205,30,239,109v22,50,34,103,34,161v0,147,-63,270,-190,369xm527,-461v-2,-52,-32,-90,-87,-90v-106,0,-249,126,-276,211v-31,98,-8,225,97,226v9,0,34,-5,77,-15v37,-9,76,-45,118,-109v49,-74,72,-148,71,-223","w":722},"\u00f3":{"d":"512,-964v18,-6,91,67,87,82v0,2,-1,3,-2,4v-31,24,-109,58,-232,101v-8,6,-56,-30,-52,-39v-12,-18,194,-160,199,-148xm475,-52v-77,61,-152,91,-224,90v-82,-1,-139,-18,-175,-49v-78,-67,-91,-206,-60,-332v39,-156,214,-314,376,-348v111,-24,205,30,239,109v22,50,34,103,34,161v0,147,-63,270,-190,369xm527,-461v-2,-52,-32,-90,-87,-90v-106,0,-249,126,-276,211v-31,98,-8,225,97,226v9,0,34,-5,77,-15v37,-9,76,-45,118,-109v49,-74,72,-148,71,-223","w":722},"\u00f4":{"d":"663,-816v4,9,-44,45,-52,39v-28,-7,-114,-71,-139,-79v-39,22,-90,50,-155,79v-8,4,-62,-28,-52,-43v3,-1,34,-27,93,-78v39,-33,72,-55,100,-65v3,-1,7,-1,12,0v17,-1,197,126,193,147xm475,-52v-77,61,-152,91,-224,90v-82,-1,-139,-18,-175,-49v-78,-67,-91,-206,-60,-332v39,-156,214,-314,376,-348v111,-24,205,30,239,109v22,50,34,103,34,161v0,147,-63,270,-190,369xm527,-461v-2,-52,-32,-90,-87,-90v-106,0,-249,126,-276,211v-31,98,-8,225,97,226v9,0,34,-5,77,-15v37,-9,76,-45,118,-109v49,-74,72,-148,71,-223","w":722},"\u00f5":{"d":"671,-821v-25,53,-60,80,-106,79v-22,0,-49,-18,-79,-54v-30,-36,-56,-54,-79,-55v-46,-1,-86,14,-121,45v-7,-9,-10,-24,-9,-45v24,-55,67,-86,128,-92v23,-2,49,14,79,47v31,35,57,53,78,53v40,1,76,-10,107,-32v4,1,6,7,6,18v0,9,-1,21,-4,36xm475,-52v-77,61,-152,91,-224,90v-82,-1,-139,-18,-175,-49v-78,-67,-91,-206,-60,-332v39,-156,214,-314,376,-348v111,-24,205,30,239,109v22,50,34,103,34,161v0,147,-63,270,-190,369xm527,-461v-2,-52,-32,-90,-87,-90v-106,0,-249,126,-276,211v-31,98,-8,225,97,226v9,0,34,-5,77,-15v37,-9,76,-45,118,-109v49,-74,72,-148,71,-223","w":722},"\u00f6":{"d":"612,-944v56,0,87,81,56,126v-18,26,-55,35,-93,24v-27,-7,-43,-25,-51,-45v-4,-29,4,-50,21,-68v15,-25,37,-37,67,-37xm295,-863v0,-40,39,-83,79,-83v28,0,46,10,55,29v2,12,3,24,3,35v0,62,-28,90,-85,84v-35,-11,-52,-33,-52,-65xm475,-52v-77,61,-152,91,-224,90v-82,-1,-139,-18,-175,-49v-78,-67,-91,-206,-60,-332v39,-156,214,-314,376,-348v111,-24,205,30,239,109v22,50,34,103,34,161v0,147,-63,270,-190,369xm527,-461v-2,-52,-32,-90,-87,-90v-106,0,-249,126,-276,211v-31,98,-8,225,97,226v9,0,34,-5,77,-15v37,-9,76,-45,118,-109v49,-74,72,-148,71,-223","w":722},"\u00f7":{"d":"391,-596v21,25,21,69,0,94v-29,34,-108,21,-126,-11v-18,-31,-11,-68,10,-95v17,-22,39,-31,60,-32v27,6,46,21,56,44xm594,-384v0,16,-23,71,-24,80v-229,17,-302,16,-539,5v-8,-3,-18,-10,-31,-21v-3,-41,16,-40,31,-59r243,-26v69,-6,149,-11,242,-14v52,-2,78,10,78,35xm302,-211v56,0,86,80,56,126v-17,27,-57,36,-92,24v-32,-11,-52,-24,-52,-61v0,-20,7,-37,21,-51v15,-25,37,-38,67,-38","w":627},"\u00f9":{"d":"178,-882v-4,-15,69,-88,87,-82v12,0,50,23,114,69v57,41,85,67,85,79v4,9,-44,45,-52,39v-114,-41,-165,-56,-232,-101v-1,-1,-2,-2,-2,-4xm571,-676v8,229,-51,504,-144,631v-39,54,-95,82,-172,82v-41,0,-78,-9,-110,-26v-97,-53,-146,-153,-146,-298v0,-103,30,-254,46,-358v57,-27,97,-44,153,-44v4,2,5,9,3,20v-24,157,-67,335,-33,501v5,25,32,52,58,55v38,5,67,-15,87,-61v29,-65,51,-144,67,-239v2,-11,15,-94,40,-249v48,-20,100,-28,151,-14","w":635},"\u00fa":{"d":"390,-964v18,-6,92,67,88,82v0,2,-1,3,-2,4v-31,24,-109,58,-232,101v-8,6,-57,-30,-53,-39v-12,-18,194,-160,199,-148xm571,-676v8,229,-51,504,-144,631v-39,54,-95,82,-172,82v-41,0,-78,-9,-110,-26v-97,-53,-146,-153,-146,-298v0,-103,30,-254,46,-358v57,-27,97,-44,153,-44v4,2,5,9,3,20v-24,157,-67,335,-33,501v5,25,32,52,58,55v38,5,67,-15,87,-61v29,-65,51,-144,67,-239v2,-11,15,-94,40,-249v48,-20,100,-28,151,-14","w":627},"\u00fb":{"d":"520,-816v4,9,-44,45,-52,39v-28,-7,-114,-71,-139,-79v-39,22,-91,48,-155,79v-7,4,-57,-30,-53,-39v0,-1,31,-29,94,-82v39,-33,72,-55,100,-65v3,-1,7,-1,12,0v17,-1,197,126,193,147xm571,-676v8,229,-51,504,-144,631v-39,54,-95,82,-172,82v-41,0,-78,-9,-110,-26v-97,-53,-146,-153,-146,-298v0,-103,30,-254,46,-358v57,-27,97,-44,153,-44v4,2,5,9,3,20v-24,157,-67,335,-33,501v5,25,32,52,58,55v38,5,67,-15,87,-61v29,-65,51,-144,67,-239v2,-11,15,-94,40,-249v48,-20,100,-28,151,-14","w":635},"\u00fc":{"d":"408,-944v57,0,86,81,56,126v-18,26,-54,32,-92,24v-29,-14,-51,-25,-52,-60v0,-21,7,-38,21,-53v15,-25,38,-37,67,-37xm92,-863v0,-40,39,-83,79,-83v28,0,46,10,55,29v12,70,-12,135,-82,119v-35,-8,-52,-33,-52,-65xm492,-675v29,163,5,292,-54,439v-37,91,-71,155,-104,192v-44,50,-65,76,-143,78v-78,2,-139,-45,-160,-105v-21,-58,-31,-122,-31,-193v0,-89,22,-216,65,-380v24,-25,55,-37,94,-37v60,0,70,11,56,61v-33,123,-78,261,-71,409v1,33,12,69,37,82v7,3,16,2,28,-1v47,-13,82,-48,105,-105v53,-132,72,-281,55,-447v45,-16,72,-24,82,-24v21,0,37,10,41,31","w":570},"\u00fe":{"d":"329,-132v5,3,7,15,7,38v0,50,-7,81,-22,92v-119,19,-185,29,-284,21v-39,-126,-33,-296,-22,-469v7,-109,15,-184,26,-225v-2,-11,81,-20,98,-20v27,0,40,5,38,15v-15,86,-23,201,-23,346v0,119,4,185,13,199v56,-2,101,-1,169,3","w":383},"\u00ff":{"d":"455,-953v56,0,86,81,56,126v-18,27,-55,36,-92,24v-27,-8,-43,-25,-51,-44v-4,-29,3,-51,20,-68v15,-25,38,-38,67,-38xm142,-842v-17,-52,30,-103,76,-104v27,0,45,10,54,29v3,12,4,24,4,35v0,62,-29,90,-86,84v-24,-8,-41,-22,-48,-44xm1,-651v74,-43,98,-58,166,-81v65,78,116,159,153,242v63,-109,119,-200,166,-273v54,2,149,2,193,27v-93,116,-193,249,-292,403r-265,414v-21,17,-37,11,-62,-5v-21,-13,-33,-21,-36,-22r-23,-23v44,-98,152,-272,216,-381r-216,-283r0,-18","w":664}}});
